digraph Tree {
node [shape=box, fontname="helvetica"] ;
edge [fontname="helvetica"] ;
0 [label="sex=male <= 0.5\ngini = 0.448\nsamples = 984\nvalue = [650, 334]"] ;
1 [label="pclass=3rd <= 0.5\ngini = 0.439\nsamples = 341\nvalue = [111, 230]"] ;
0 -> 1 [labeldistance=2.5, labelangle=45, headlabel="True"] ;
2 [label="age <= 3.0\ngini = 0.153\nsamples = 180\nvalue = [15, 165]"] ;
1 -> 2 ;
3 [label="pclass=2nd <= 0.5\ngini = 0.444\nsamples = 3\nvalue = [1, 2]"] ;
2 -> 3 ;
4 [label="gini = 0.0\nsamples = 1\nvalue = [1, 0]"] ;
3 -> 4 ;
5 [label="gini = 0.0\nsamples = 2\nvalue = [0, 2]"] ;
3 -> 5 ;
6 [label="pclass=1st <= 0.5\ngini = 0.146\nsamples = 177\nvalue = [14, 163]"] ;
2 -> 6 ;
7 [label="age <= 55.0\ngini = 0.188\nsamples = 76\nvalue = [8, 68]"] ;
6 -> 7 ;
8 [label="age <= 31.597\ngini = 0.169\nsamples = 75\nvalue = [7, 68]"] ;
7 -> 8 ;
9 [label="age <= 29.5\ngini = 0.219\nsamples = 48\nvalue = [6, 42]"] ;
8 -> 9 ;
10 [label="age <= 22.5\ngini = 0.137\nsamples = 27\nvalue = [2, 25]"] ;
9 -> 10 ;
11 [label="age <= 21.0\ngini = 0.208\nsamples = 17\nvalue = [2, 15]"] ;
10 -> 11 ;
12 [label="age <= 16.5\ngini = 0.133\nsamples = 14\nvalue = [1, 13]"] ;
11 -> 12 ;
13 [label="gini = 0.0\nsamples = 7\nvalue = [0, 7]"] ;
12 -> 13 ;
14 [label="gini = 0.245\nsamples = 7\nvalue = [1, 6]"] ;
12 -> 14 ;
15 [label="gini = 0.444\nsamples = 3\nvalue = [1, 2]"] ;
11 -> 15 ;
16 [label="gini = 0.0\nsamples = 10\nvalue = [0, 10]"] ;
10 -> 16 ;
17 [label="age <= 30.5\ngini = 0.308\nsamples = 21\nvalue = [4, 17]"] ;
9 -> 17 ;
18 [label="gini = 0.375\nsamples = 4\nvalue = [1, 3]"] ;
17 -> 18 ;
19 [label="age <= 31.097\ngini = 0.291\nsamples = 17\nvalue = [3, 14]"] ;
17 -> 19 ;
20 [label="gini = 0.0\nsamples = 1\nvalue = [0, 1]"] ;
19 -> 20 ;
21 [label="gini = 0.305\nsamples = 16\nvalue = [3, 13]"] ;
19 -> 21 ;
22 [label="age <= 43.0\ngini = 0.071\nsamples = 27\nvalue = [1, 26]"] ;
8 -> 22 ;
23 [label="gini = 0.0\nsamples = 18\nvalue = [0, 18]"] ;
22 -> 23 ;
24 [label="age <= 44.5\ngini = 0.198\nsamples = 9\nvalue = [1, 8]"] ;
22 -> 24 ;
25 [label="gini = 0.0\nsamples = 1\nvalue = [1, 0]"] ;
24 -> 25 ;
26 [label="gini = 0.0\nsamples = 8\nvalue = [0, 8]"] ;
24 -> 26 ;
27 [label="gini = 0.0\nsamples = 1\nvalue = [1, 0]"] ;
7 -> 27 ;
28 [label="age <= 24.5\ngini = 0.112\nsamples = 101\nvalue = [6, 95]"] ;
6 -> 28 ;
29 [label="gini = 0.0\nsamples = 17\nvalue = [0, 17]"] ;
28 -> 29 ;
30 [label="age <= 25.5\ngini = 0.133\nsamples = 84\nvalue = [6, 78]"] ;
28 -> 30 ;
31 [label="gini = 0.0\nsamples = 1\nvalue = [1, 0]"] ;
30 -> 31 ;
32 [label="age <= 36.5\ngini = 0.113\nsamples = 83\nvalue = [5, 78]"] ;
30 -> 32 ;
33 [label="age <= 35.5\ngini = 0.159\nsamples = 46\nvalue = [4, 42]"] ;
32 -> 33 ;
34 [label="age <= 31.097\ngini = 0.133\nsamples = 42\nvalue = [3, 39]"] ;
33 -> 34 ;
35 [label="gini = 0.0\nsamples = 8\nvalue = [0, 8]"] ;
34 -> 35 ;
36 [label="age <= 32.097\ngini = 0.161\nsamples = 34\nvalue = [3, 31]"] ;
34 -> 36 ;
37 [label="gini = 0.175\nsamples = 31\nvalue = [3, 28]"] ;
36 -> 37 ;
38 [label="gini = 0.0\nsamples = 3\nvalue = [0, 3]"] ;
36 -> 38 ;
39 [label="gini = 0.375\nsamples = 4\nvalue = [1, 3]"] ;
33 -> 39 ;
40 [label="age <= 49.5\ngini = 0.053\nsamples = 37\nvalue = [1, 36]"] ;
32 -> 40 ;
41 [label="gini = 0.0\nsamples = 20\nvalue = [0, 20]"] ;
40 -> 41 ;
42 [label="age <= 50.5\ngini = 0.111\nsamples = 17\nvalue = [1, 16]"] ;
40 -> 42 ;
43 [label="gini = 0.0\nsamples = 1\nvalue = [1, 0]"] ;
42 -> 43 ;
44 [label="gini = 0.0\nsamples = 16\nvalue = [0, 16]"] ;
42 -> 44 ;
45 [label="age <= 25.5\ngini = 0.481\nsamples = 161\nvalue = [96, 65]"] ;
1 -> 45 ;
46 [label="age <= 13.0\ngini = 0.491\nsamples = 30\nvalue = [13, 17]"] ;
45 -> 46 ;
47 [label="age <= 5.5\ngini = 0.48\nsamples = 10\nvalue = [6, 4]"] ;
46 -> 47 ;
48 [label="age <= 2.5\ngini = 0.32\nsamples = 5\nvalue = [1, 4]"] ;
47 -> 48 ;
49 [label="age <= 1.083\ngini = 0.5\nsamples = 2\nvalue = [1, 1]"] ;
48 -> 49 ;
50 [label="gini = 0.0\nsamples = 1\nvalue = [0, 1]"] ;
49 -> 50 ;
51 [label="gini = 0.0\nsamples = 1\nvalue = [1, 0]"] ;
49 -> 51 ;
52 [label="gini = 0.0\nsamples = 3\nvalue = [0, 3]"] ;
48 -> 52 ;
53 [label="gini = 0.0\nsamples = 5\nvalue = [5, 0]"] ;
47 -> 53 ;
54 [label="age <= 19.0\ngini = 0.455\nsamples = 20\nvalue = [7, 13]"] ;
46 -> 54 ;
55 [label="age <= 15.5\ngini = 0.375\nsamples = 12\nvalue = [3, 9]"] ;
54 -> 55 ;
56 [label="gini = 0.0\nsamples = 1\nvalue = [0, 1]"] ;
55 -> 56 ;
57 [label="age <= 16.5\ngini = 0.397\nsamples = 11\nvalue = [3, 8]"] ;
55 -> 57 ;
58 [label="gini = 0.375\nsamples = 4\nvalue = [1, 3]"] ;
57 -> 58 ;
59 [label="age <= 17.5\ngini = 0.408\nsamples = 7\nvalue = [2, 5]"] ;
57 -> 59 ;
60 [label="gini = 0.444\nsamples = 3\nvalue = [1, 2]"] ;
59 -> 60 ;
61 [label="gini = 0.375\nsamples = 4\nvalue = [1, 3]"] ;
59 -> 61 ;
62 [label="age <= 21.5\ngini = 0.5\nsamples = 8\nvalue = [4, 4]"] ;
54 -> 62 ;
63 [label="gini = 0.0\nsamples = 2\nvalue = [2, 0]"] ;
62 -> 63 ;
64 [label="age <= 23.5\ngini = 0.444\nsamples = 6\nvalue = [2, 4]"] ;
62 -> 64 ;
65 [label="age <= 22.5\ngini = 0.375\nsamples = 4\nvalue = [1, 3]"] ;
64 -> 65 ;
66 [label="gini = 0.444\nsamples = 3\nvalue = [1, 2]"] ;
65 -> 66 ;
67 [label="gini = 0.0\nsamples = 1\nvalue = [0, 1]"] ;
65 -> 67 ;
68 [label="gini = 0.5\nsamples = 2\nvalue = [1, 1]"] ;
64 -> 68 ;
69 [label="age <= 44.0\ngini = 0.464\nsamples = 131\nvalue = [83, 48]"] ;
45 -> 69 ;
70 [label="age <= 38.5\ngini = 0.462\nsamples = 130\nvalue = [83, 47]"] ;
69 -> 70 ;
71 [label="age <= 32.5\ngini = 0.466\nsamples = 127\nvalue = [80, 47]"] ;
70 -> 71 ;
72 [label="age <= 29.0\ngini = 0.455\nsamples = 120\nvalue = [78, 42]"] ;
71 -> 72 ;
73 [label="gini = 0.0\nsamples = 2\nvalue = [2, 0]"] ;
72 -> 73 ;
74 [label="age <= 30.597\ngini = 0.458\nsamples = 118\nvalue = [76, 42]"] ;
72 -> 74 ;
75 [label="gini = 0.444\nsamples = 3\nvalue = [1, 2]"] ;
74 -> 75 ;
76 [label="age <= 31.597\ngini = 0.454\nsamples = 115\nvalue = [75, 40]"] ;
74 -> 76 ;
77 [label="gini = 0.456\nsamples = 114\nvalue = [74, 40]"] ;
76 -> 77 ;
78 [label="gini = 0.0\nsamples = 1\nvalue = [1, 0]"] ;
76 -> 78 ;
79 [label="age <= 36.5\ngini = 0.408\nsamples = 7\nvalue = [2, 5]"] ;
71 -> 79 ;
80 [label="gini = 0.0\nsamples = 4\nvalue = [0, 4]"] ;
79 -> 80 ;
81 [label="age <= 37.5\ngini = 0.444\nsamples = 3\nvalue = [2, 1]"] ;
79 -> 81 ;
82 [label="gini = 0.0\nsamples = 1\nvalue = [1, 0]"] ;
81 -> 82 ;
83 [label="gini = 0.5\nsamples = 2\nvalue = [1, 1]"] ;
81 -> 83 ;
84 [label="gini = 0.0\nsamples = 3\nvalue = [3, 0]"] ;
70 -> 84 ;
85 [label="gini = 0.0\nsamples = 1\nvalue = [0, 1]"] ;
69 -> 85 ;
86 [label="pclass=1st <= 0.5\ngini = 0.271\nsamples = 643\nvalue = [539, 104]"] ;
0 -> 86 [labeldistance=2.5, labelangle=-45, headlabel="False"] ;
87 [label="age <= 3.5\ngini = 0.199\nsamples = 508\nvalue = [451, 57]"] ;
86 -> 87 ;
88 [label="age <= 0.667\ngini = 0.219\nsamples = 8\nvalue = [1, 7]"] ;
87 -> 88 ;
89 [label="gini = 0.0\nsamples = 1\nvalue = [1, 0]"] ;
88 -> 89 ;
90 [label="gini = 0.0\nsamples = 7\nvalue = [0, 7]"] ;
88 -> 90 ;
91 [label="age <= 10.0\ngini = 0.18\nsamples = 500\nvalue = [450, 50]"] ;
87 -> 91 ;
92 [label="pclass=2nd <= 0.5\ngini = 0.469\nsamples = 8\nvalue = [5, 3]"] ;
91 -> 92 ;
93 [label="age <= 7.5\ngini = 0.278\nsamples = 6\nvalue = [5, 1]"] ;
92 -> 93 ;
94 [label="gini = 0.0\nsamples = 3\nvalue = [3, 0]"] ;
93 -> 94 ;
95 [label="gini = 0.444\nsamples = 3\nvalue = [2, 1]"] ;
93 -> 95 ;
96 [label="gini = 0.0\nsamples = 2\nvalue = [0, 2]"] ;
92 -> 96 ;
97 [label="age <= 18.5\ngini = 0.173\nsamples = 492\nvalue = [445, 47]"] ;
91 -> 97 ;
98 [label="gini = 0.0\nsamples = 18\nvalue = [18, 0]"] ;
97 -> 98 ;
99 [label="age <= 45.5\ngini = 0.179\nsamples = 474\nvalue = [427, 47]"] ;
97 -> 99 ;
100 [label="age <= 20.5\ngini = 0.183\nsamples = 462\nvalue = [415, 47]"] ;
99 -> 100 ;
101 [label="age <= 19.5\ngini = 0.291\nsamples = 17\nvalue = [14, 3]"] ;
100 -> 101 ;
102 [label="pclass=2nd <= 0.5\ngini = 0.219\nsamples = 8\nvalue = [7, 1]"] ;
101 -> 102 ;
103 [label="gini = 0.278\nsamples = 6\nvalue = [5, 1]"] ;
102 -> 103 ;
104 [label="gini = 0.0\nsamples = 2\nvalue = [2, 0]"] ;
102 -> 104 ;
105 [label="pclass=3rd <= 0.5\ngini = 0.346\nsamples = 9\nvalue = [7, 2]"] ;
101 -> 105 ;
106 [label="gini = 0.444\nsamples = 3\nvalue = [2, 1]"] ;
105 -> 106 ;
107 [label="gini = 0.278\nsamples = 6\nvalue = [5, 1]"] ;
105 -> 107 ;
108 [label="age <= 31.097\ngini = 0.178\nsamples = 445\nvalue = [401, 44]"] ;
100 -> 108 ;
109 [label="age <= 26.5\ngini = 0.124\nsamples = 90\nvalue = [84, 6]"] ;
108 -> 109 ;
110 [label="age <= 22.5\ngini = 0.18\nsamples = 60\nvalue = [54, 6]"] ;
109 -> 110 ;
111 [label="gini = 0.1\nsamples = 19\nvalue = [18, 1]"] ;
110 -> 111 ;
112 [label="gini = 0.214\nsamples = 41\nvalue = [36, 5]"] ;
110 -> 112 ;
113 [label="gini = 0.0\nsamples = 30\nvalue = [30, 0]"] ;
109 -> 113 ;
114 [label="age <= 44.5\ngini = 0.191\nsamples = 355\nvalue = [317, 38]"] ;
108 -> 114 ;
115 [label="age <= 41.5\ngini = 0.189\nsamples = 350\nvalue = [313, 37]"] ;
114 -> 115 ;
116 [label="gini = 0.192\nsamples = 344\nvalue = [307, 37]"] ;
115 -> 116 ;
117 [label="gini = 0.0\nsamples = 6\nvalue = [6, 0]"] ;
115 -> 117 ;
118 [label="pclass=3rd <= 0.5\ngini = 0.32\nsamples = 5\nvalue = [4, 1]"] ;
114 -> 118 ;
119 [label="gini = 0.0\nsamples = 3\nvalue = [3, 0]"] ;
118 -> 119 ;
120 [label="gini = 0.5\nsamples = 2\nvalue = [1, 1]"] ;
118 -> 120 ;
121 [label="gini = 0.0\nsamples = 12\nvalue = [12, 0]"] ;
99 -> 121 ;
122 [label="age <= 53.0\ngini = 0.454\nsamples = 135\nvalue = [88, 47]"] ;
86 -> 122 ;
123 [label="age <= 17.5\ngini = 0.483\nsamples = 115\nvalue = [68, 47]"] ;
122 -> 123 ;
124 [label="gini = 0.0\nsamples = 6\nvalue = [0, 6]"] ;
123 -> 124 ;
125 [label="age <= 47.5\ngini = 0.469\nsamples = 109\nvalue = [68, 41]"] ;
123 -> 125 ;
126 [label="age <= 45.5\ngini = 0.451\nsamples = 99\nvalue = [65, 34]"] ;
125 -> 126 ;
127 [label="age <= 20.0\ngini = 0.466\nsamples = 92\nvalue = [58, 34]"] ;
126 -> 127 ;
128 [label="gini = 0.0\nsamples = 2\nvalue = [2, 0]"] ;
127 -> 128 ;
129 [label="age <= 29.0\ngini = 0.47\nsamples = 90\nvalue = [56, 34]"] ;
127 -> 129 ;
130 [label="age <= 24.5\ngini = 0.5\nsamples = 16\nvalue = [8, 8]"] ;
129 -> 130 ;
131 [label="age <= 23.5\ngini = 0.444\nsamples = 6\nvalue = [4, 2]"] ;
130 -> 131 ;
132 [label="gini = 0.5\nsamples = 4\nvalue = [2, 2]"] ;
131 -> 132 ;
133 [label="gini = 0.0\nsamples = 2\nvalue = [2, 0]"] ;
131 -> 133 ;
134 [label="age <= 27.5\ngini = 0.48\nsamples = 10\nvalue = [4, 6]"] ;
130 -> 134 ;
135 [label="gini = 0.444\nsamples = 6\nvalue = [2, 4]"] ;
134 -> 135 ;
136 [label="gini = 0.5\nsamples = 4\nvalue = [2, 2]"] ;
134 -> 136 ;
137 [label="age <= 30.5\ngini = 0.456\nsamples = 74\nvalue = [48, 26]"] ;
129 -> 137 ;
138 [label="gini = 0.0\nsamples = 3\nvalue = [3, 0]"] ;
137 -> 138 ;
139 [label="age <= 31.097\ngini = 0.464\nsamples = 71\nvalue = [45, 26]"] ;
137 -> 139 ;
140 [label="gini = 0.444\nsamples = 3\nvalue = [1, 2]"] ;
139 -> 140 ;
141 [label="gini = 0.457\nsamples = 68\nvalue = [44, 24]"] ;
139 -> 141 ;
142 [label="gini = 0.0\nsamples = 7\nvalue = [7, 0]"] ;
126 -> 142 ;
143 [label="age <= 48.5\ngini = 0.42\nsamples = 10\nvalue = [3, 7]"] ;
125 -> 143 ;
144 [label="gini = 0.0\nsamples = 2\nvalue = [0, 2]"] ;
143 -> 144 ;
145 [label="age <= 51.0\ngini = 0.469\nsamples = 8\nvalue = [3, 5]"] ;
143 -> 145 ;
146 [label="age <= 49.5\ngini = 0.49\nsamples = 7\nvalue = [3, 4]"] ;
145 -> 146 ;
147 [label="gini = 0.444\nsamples = 6\nvalue = [2, 4]"] ;
146 -> 147 ;
148 [label="gini = 0.0\nsamples = 1\nvalue = [1, 0]"] ;
146 -> 148 ;
149 [label="gini = 0.0\nsamples = 1\nvalue = [0, 1]"] ;
145 -> 149 ;
150 [label="gini = 0.0\nsamples = 20\nvalue = [20, 0]"] ;
122 -> 150 ;
}